<?xml version="1.0"?>
<opencv_storage>
<stage2>
  <maxWeakCount>6</maxWeakCount>
  <stageThreshold>-7.2281873226165771e-01</stageThreshold>
  <weakClassifiers>
    <_>
      <internalNodes>
        0 -1 744 8.9282378554344177e-02</internalNodes>
      <leafValues>
        -8.4186047315597534e-01 6.9811320304870605e-01</leafValues></_>
    <_>
      <internalNodes>
        0 -1 63 6.4999468624591827e-02</internalNodes>
      <leafValues>
        -5.7766509056091309e-01 7.3320752382278442e-01</leafValues></_>
    <_>
      <internalNodes>
        0 -1 181 2.3038700222969055e-02</internalNodes>
      <leafValues>
        -7.3056459426879883e-01 4.9780502915382385e-01</leafValues></_>
    <_>
      <internalNodes>
        0 -1 1064 1.5542179346084595e-02</internalNodes>
      <leafValues>
        -7.9372054338455200e-01 4.2973095178604126e-01</leafValues></_>
    <_>
      <internalNodes>
        0 -1 127 5.7527427561581135e-03</internalNodes>
      <leafValues>
        6.5549880266189575e-01 -5.9765392541885376e-01</leafValues></_>
    <_>
      <internalNodes>
        0 -1 746 2.6439189910888672e-02</internalNodes>
      <leafValues>
        -9.4077283143997192e-01 3.6682471632957458e-01</leafValues></_></weakClassifiers></stage2>
</opencv_storage>
