<?xml version="1.0"?>
<opencv_storage>
<!-- Created using Computer Vision System Toolbox(tm) for MATLAB(R) -->
<!-- Version 9.2.0.556344 (R2017a) -->
<!-- Compatible with OpenCV 3.1 -->
<cascade>
  <stageType>BOOST</stageType>
  <featureType>HOG</featureType>
  <height>32</height>
  <width>32</width>
  <stageParams>
    <boostType>GAB</boostType>
    <minHitRate>9.9500000476837158e-01</minHitRate>
    <maxFalseAlarm>4.0000000596046448e-01</maxFalseAlarm>
    <weightTrimRate>9.4999999999999996e-01</weightTrimRate>
    <maxDepth>1</maxDepth>
    <maxWeakCount>100</maxWeakCount></stageParams>
  <featureParams>
    <maxCatCount>0</maxCatCount>
    <featSize>36</featSize></featureParams>
  <stageNum>6</stageNum>
  <stages>
    <!-- stage 0 -->
    <_>
      <maxWeakCount>2</maxWeakCount>
      <stageThreshold>-4.2526948451995850e-01</stageThreshold>
      <weakClassifiers>
        <_>
          <internalNodes>
            0 -1 24 7.8025706112384796e-02</internalNodes>
          <leafValues>
            -9.0909093618392944e-01 9.2079210281372070e-01</leafValues></_>
        <_>
          <internalNodes>
            0 -1 6 3.2213553786277771e-02</internalNodes>
          <leafValues>
            -8.8838011026382446e-01 4.8382142186164856e-01</leafValues></_></weakClassifiers></_>
    <!-- stage 1 -->
    <_>
      <maxWeakCount>3</maxWeakCount>
      <stageThreshold>-1.0020229816436768e+00</stageThreshold>
      <weakClassifiers>
        <_>
          <internalNodes>
            0 -1 7 8.6568154394626617e-02</internalNodes>
          <leafValues>
            -8.5520362854003906e-01 8.1999999284744263e-01</leafValues></_>
        <_>
          <internalNodes>
            0 -1 19 6.3978597521781921e-02</internalNodes>
          <leafValues>
            -6.1784690618515015e-01 7.7585399150848389e-01</leafValues></_>
        <_>
          <internalNodes>
            0 -1 20 1.1594452895224094e-02</internalNodes>
          <leafValues>
            4.7102755308151245e-01 -9.8192590475082397e-01</leafValues></_></weakClassifiers></_>
    <!-- stage 2 -->
    <_>
      <maxWeakCount>4</maxWeakCount>
      <stageThreshold>-7.3542463779449463e-01</stageThreshold>
      <weakClassifiers>
        <_>
          <internalNodes>
            0 -1 17 8.9282378554344177e-02</internalNodes>
          <leafValues>
            -8.2959640026092529e-01 7.9591834545135498e-01</leafValues></_>
        <_>
          <internalNodes>
            0 -1 11 1.8466765061020851e-02</internalNodes>
          <leafValues>
            -7.9510122537612915e-01 5.1338040828704834e-01</leafValues></_>
        <_>
          <internalNodes>
            0 -1 14 1.1950877495110035e-02</internalNodes>
          <leafValues>
            -8.6271291971206665e-01 4.2916655540466309e-01</leafValues></_>
        <_>
          <internalNodes>
            0 -1 23 1.8836170434951782e-02</internalNodes>
          <leafValues>
            -7.1032398939132690e-01 4.6010643243789673e-01</leafValues></_></weakClassifiers></_>
    <!-- stage 3 -->
    <_>
      <maxWeakCount>5</maxWeakCount>
      <stageThreshold>-1.4215105772018433e+00</stageThreshold>
      <weakClassifiers>
        <_>
          <internalNodes>
            0 -1 1 6.2035724520683289e-02</internalNodes>
          <leafValues>
            -7.3109245300292969e-01 8.0722892284393311e-01</leafValues></_>
        <_>
          <internalNodes>
            0 -1 4 2.5056466460227966e-02</internalNodes>
          <leafValues>
            -7.8064095973968506e-01 5.2218574285507202e-01</leafValues></_>
        <_>
          <internalNodes>
            0 -1 16 2.1070770919322968e-02</internalNodes>
          <leafValues>
            -8.7224179506301880e-01 4.0201777219772339e-01</leafValues></_>
        <_>
          <internalNodes>
            0 -1 22 2.8582300990819931e-02</internalNodes>
          <leafValues>
            -6.8173235654830933e-01 4.4690078496932983e-01</leafValues></_>
        <_>
          <internalNodes>
            0 -1 10 2.1097585558891296e-02</internalNodes>
          <leafValues>
            -8.7386637926101685e-01 3.6993739008903503e-01</leafValues></_></weakClassifiers></_>
    <!-- stage 4 -->
    <_>
      <maxWeakCount>5</maxWeakCount>
      <stageThreshold>-8.2292854785919189e-01</stageThreshold>
      <weakClassifiers>
        <_>
          <internalNodes>
            0 -1 12 6.4421951770782471e-02</internalNodes>
          <leafValues>
            -8.6096256971359253e-01 4.0298506617546082e-01</leafValues></_>
        <_>
          <internalNodes>
            0 -1 9 8.1973038613796234e-03</internalNodes>
          <leafValues>
            -9.2632949352264404e-01 2.5206738710403442e-01</leafValues></_>
        <_>
          <internalNodes>
            0 -1 3 1.4503711834549904e-02</internalNodes>
          <leafValues>
            -9.7982031106948853e-01 2.1532043814659119e-01</leafValues></_>
        <_>
          <internalNodes>
            0 -1 2 1.4843664132058620e-02</internalNodes>
          <leafValues>
            3.1342875957489014e-01 -8.4313231706619263e-01</leafValues></_>
        <_>
          <internalNodes>
            0 -1 18 4.1666485369205475e-02</internalNodes>
          <leafValues>
            -7.4033832550048828e-01 4.3561428785324097e-01</leafValues></_></weakClassifiers></_>
    <!-- stage 5 -->
    <_>
      <maxWeakCount>6</maxWeakCount>
      <stageThreshold>-1.0827970504760742e+00</stageThreshold>
      <weakClassifiers>
        <_>
          <internalNodes>
            0 -1 21 6.0056343674659729e-02</internalNodes>
          <leafValues>
            -7.3023253679275513e-01 4.7169810533523560e-01</leafValues></_>
        <_>
          <internalNodes>
            0 -1 13 1.1378681287169456e-02</internalNodes>
          <leafValues>
            -8.6773627996444702e-01 3.5066741704940796e-01</leafValues></_>
        <_>
          <internalNodes>
            0 -1 0 6.2073133885860443e-02</internalNodes>
          <leafValues>
            -5.6282204389572144e-01 6.6141116619110107e-01</leafValues></_>
        <_>
          <internalNodes>
            0 -1 5 2.1045049652457237e-02</internalNodes>
          <leafValues>
            3.9017882943153381e-01 -6.9184023141860962e-01</leafValues></_>
        <_>
          <internalNodes>
            0 -1 8 2.9036261141300201e-02</internalNodes>
          <leafValues>
            3.8182193040847778e-01 -8.3092516660690308e-01</leafValues></_>
        <_>
          <internalNodes>
            0 -1 15 2.7400419116020203e-02</internalNodes>
          <leafValues>
            3.0599308013916016e-01 -8.4352409839630127e-01</leafValues></_></weakClassifiers></_></stages>
  <features>
    <_>
      <rect>
        0 0 8 8 19</rect></_>
    <_>
      <rect>
        0 4 8 8 27</rect></_>
    <_>
      <rect>
        0 8 8 8 4</rect></_>
    <_>
      <rect>
        0 16 8 8 9</rect></_>
    <_>
      <rect>
        4 0 8 8 1</rect></_>
    <_>
      <rect>
        4 0 8 8 17</rect></_>
    <_>
      <rect>
        4 0 8 8 19</rect></_>
    <_>
      <rect>
        4 16 8 8 17</rect></_>
    <_>
      <rect>
        4 16 8 8 26</rect></_>
    <_>
      <rect>
        4 16 8 8 30</rect></_>
    <_>
      <rect>
        8 0 8 8 35</rect></_>
    <_>
      <rect>
        12 4 8 8 14</rect></_>
    <_>
      <rect>
        12 8 8 8 26</rect></_>
    <_>
      <rect>
        12 12 8 8 22</rect></_>
    <_>
      <rect>
        12 16 8 8 30</rect></_>
    <_>
      <rect>
        12 16 8 8 35</rect></_>
    <_>
      <rect>
        16 0 8 8 5</rect></_>
    <_>
      <rect>
        16 0 8 8 24</rect></_>
    <_>
      <rect>
        16 0 8 8 33</rect></_>
    <_>
      <rect>
        16 8 8 8 6</rect></_>
    <_>
      <rect>
        16 8 8 8 31</rect></_>
    <_>
      <rect>
        16 12 8 8 24</rect></_>
    <_>
      <rect>
        16 0 8 16 24</rect></_>
    <_>
      <rect>
        0 0 16 8 24</rect></_>
    <_>
      <rect>
        0 0 16 8 33</rect></_></features></cascade>
</opencv_storage>
