<?xml version="1.0"?>
<opencv_storage>
<!-- Created using Computer Vision System Toolbox(tm) for MATLAB(R) -->
<!-- Version 9.2.0.556344 (R2017a) -->
<!-- Compatible with OpenCV 3.1 -->
<cascade>
  <stageType>BOOST</stageType>
  <featureType>HOG</featureType>
  <height>32</height>
  <width>32</width>
  <stageParams>
    <boostType>GAB</boostType>
    <minHitRate>9.9500000476837158e-01</minHitRate>
    <maxFalseAlarm>4.0000000596046448e-01</maxFalseAlarm>
    <weightTrimRate>9.4999999999999996e-01</weightTrimRate>
    <maxDepth>1</maxDepth>
    <maxWeakCount>100</maxWeakCount></stageParams>
  <featureParams>
    <maxCatCount>0</maxCatCount>
    <featSize>36</featSize></featureParams>
  <stageNum>10</stageNum>
  <stages>
    <!-- stage 0 -->
    <_>
      <maxWeakCount>2</maxWeakCount>
      <stageThreshold>-4.2526948451995850e-01</stageThreshold>
      <weakClassifiers>
        <_>
          <internalNodes>
            0 -1 47 7.8025706112384796e-02</internalNodes>
          <leafValues>
            -9.0909093618392944e-01 9.2079210281372070e-01</leafValues></_>
        <_>
          <internalNodes>
            0 -1 14 3.2213553786277771e-02</internalNodes>
          <leafValues>
            -8.8838011026382446e-01 4.8382142186164856e-01</leafValues></_></weakClassifiers></_>
    <!-- stage 1 -->
    <_>
      <maxWeakCount>3</maxWeakCount>
      <stageThreshold>-1.0020229816436768e+00</stageThreshold>
      <weakClassifiers>
        <_>
          <internalNodes>
            0 -1 17 8.6568154394626617e-02</internalNodes>
          <leafValues>
            -8.5520362854003906e-01 8.1999999284744263e-01</leafValues></_>
        <_>
          <internalNodes>
            0 -1 38 6.3978597521781921e-02</internalNodes>
          <leafValues>
            -6.1784690618515015e-01 7.7585399150848389e-01</leafValues></_>
        <_>
          <internalNodes>
            0 -1 40 1.1594452895224094e-02</internalNodes>
          <leafValues>
            4.7102755308151245e-01 -9.8192590475082397e-01</leafValues></_></weakClassifiers></_>
    <!-- stage 2 -->
    <_>
      <maxWeakCount>4</maxWeakCount>
      <stageThreshold>-7.3542463779449463e-01</stageThreshold>
      <weakClassifiers>
        <_>
          <internalNodes>
            0 -1 33 8.9282378554344177e-02</internalNodes>
          <leafValues>
            -8.2959640026092529e-01 7.9591834545135498e-01</leafValues></_>
        <_>
          <internalNodes>
            0 -1 23 1.8466765061020851e-02</internalNodes>
          <leafValues>
            -7.9510122537612915e-01 5.1338040828704834e-01</leafValues></_>
        <_>
          <internalNodes>
            0 -1 30 1.1950877495110035e-02</internalNodes>
          <leafValues>
            -8.6271291971206665e-01 4.2916655540466309e-01</leafValues></_>
        <_>
          <internalNodes>
            0 -1 46 1.8836170434951782e-02</internalNodes>
          <leafValues>
            -7.1032398939132690e-01 4.6010643243789673e-01</leafValues></_></weakClassifiers></_>
    <!-- stage 3 -->
    <_>
      <maxWeakCount>5</maxWeakCount>
      <stageThreshold>-1.4215105772018433e+00</stageThreshold>
      <weakClassifiers>
        <_>
          <internalNodes>
            0 -1 3 6.2035724520683289e-02</internalNodes>
          <leafValues>
            -7.3109245300292969e-01 8.0722892284393311e-01</leafValues></_>
        <_>
          <internalNodes>
            0 -1 12 2.5056466460227966e-02</internalNodes>
          <leafValues>
            -7.8064095973968506e-01 5.2218574285507202e-01</leafValues></_>
        <_>
          <internalNodes>
            0 -1 32 2.1070770919322968e-02</internalNodes>
          <leafValues>
            -8.7224179506301880e-01 4.0201777219772339e-01</leafValues></_>
        <_>
          <internalNodes>
            0 -1 45 2.8582300990819931e-02</internalNodes>
          <leafValues>
            -6.8173235654830933e-01 4.4690078496932983e-01</leafValues></_>
        <_>
          <internalNodes>
            0 -1 21 2.1097585558891296e-02</internalNodes>
          <leafValues>
            -8.7386637926101685e-01 3.6993739008903503e-01</leafValues></_></weakClassifiers></_>
    <!-- stage 4 -->
    <_>
      <maxWeakCount>5</maxWeakCount>
      <stageThreshold>-8.2292854785919189e-01</stageThreshold>
      <weakClassifiers>
        <_>
          <internalNodes>
            0 -1 26 6.4421951770782471e-02</internalNodes>
          <leafValues>
            -8.6096256971359253e-01 4.0298506617546082e-01</leafValues></_>
        <_>
          <internalNodes>
            0 -1 19 8.1973038613796234e-03</internalNodes>
          <leafValues>
            -9.2632949352264404e-01 2.5206738710403442e-01</leafValues></_>
        <_>
          <internalNodes>
            0 -1 10 1.4503711834549904e-02</internalNodes>
          <leafValues>
            -9.7982031106948853e-01 2.1532043814659119e-01</leafValues></_>
        <_>
          <internalNodes>
            0 -1 4 1.4843664132058620e-02</internalNodes>
          <leafValues>
            3.1342875957489014e-01 -8.4313231706619263e-01</leafValues></_>
        <_>
          <internalNodes>
            0 -1 34 4.1666485369205475e-02</internalNodes>
          <leafValues>
            -7.4033832550048828e-01 4.3561428785324097e-01</leafValues></_></weakClassifiers></_>
    <!-- stage 5 -->
    <_>
      <maxWeakCount>6</maxWeakCount>
      <stageThreshold>-1.0827970504760742e+00</stageThreshold>
      <weakClassifiers>
        <_>
          <internalNodes>
            0 -1 41 6.0056343674659729e-02</internalNodes>
          <leafValues>
            -7.3023253679275513e-01 4.7169810533523560e-01</leafValues></_>
        <_>
          <internalNodes>
            0 -1 28 1.1378681287169456e-02</internalNodes>
          <leafValues>
            -8.6773627996444702e-01 3.5066741704940796e-01</leafValues></_>
        <_>
          <internalNodes>
            0 -1 0 6.2073133885860443e-02</internalNodes>
          <leafValues>
            -5.6282204389572144e-01 6.6141116619110107e-01</leafValues></_>
        <_>
          <internalNodes>
            0 -1 13 2.1045049652457237e-02</internalNodes>
          <leafValues>
            3.9017882943153381e-01 -6.9184023141860962e-01</leafValues></_>
        <_>
          <internalNodes>
            0 -1 18 2.9036261141300201e-02</internalNodes>
          <leafValues>
            3.8182193040847778e-01 -8.3092516660690308e-01</leafValues></_>
        <_>
          <internalNodes>
            0 -1 31 2.7400419116020203e-02</internalNodes>
          <leafValues>
            3.0599308013916016e-01 -8.4352409839630127e-01</leafValues></_></weakClassifiers></_>
    <!-- stage 6 -->
    <_>
      <maxWeakCount>9</maxWeakCount>
      <stageThreshold>-1.3983216285705566e+00</stageThreshold>
      <weakClassifiers>
        <_>
          <internalNodes>
            0 -1 5 3.9966749027371407e-03</internalNodes>
          <leafValues>
            4.2608696222305298e-01 -7.5728154182434082e-01</leafValues></_>
        <_>
          <internalNodes>
            0 -1 35 9.0240001678466797e-02</internalNodes>
          <leafValues>
            -5.6992059946060181e-01 4.9533241987228394e-01</leafValues></_>
        <_>
          <internalNodes>
            0 -1 29 5.7279717177152634e-02</internalNodes>
          <leafValues>
            -3.4569880366325378e-01 7.6301324367523193e-01</leafValues></_>
        <_>
          <internalNodes>
            0 -1 7 1.6819067299365997e-02</internalNodes>
          <leafValues>
            -8.0787813663482666e-01 2.5213542580604553e-01</leafValues></_>
        <_>
          <internalNodes>
            0 -1 2 4.2763859033584595e-02</internalNodes>
          <leafValues>
            3.5431322455406189e-01 -7.2465860843658447e-01</leafValues></_>
        <_>
          <internalNodes>
            0 -1 36 3.1834628432989120e-02</internalNodes>
          <leafValues>
            -6.5144032239913940e-01 2.7761989831924438e-01</leafValues></_>
        <_>
          <internalNodes>
            0 -1 49 3.1166210770606995e-02</internalNodes>
          <leafValues>
            -5.7004374265670776e-01 3.7307685613632202e-01</leafValues></_>
        <_>
          <internalNodes>
            0 -1 39 7.7328816056251526e-02</internalNodes>
          <leafValues>
            -3.4098368883132935e-01 7.5401526689529419e-01</leafValues></_>
        <_>
          <internalNodes>
            0 -1 48 1.7942834645509720e-02</internalNodes>
          <leafValues>
            -9.2687559127807617e-01 2.8747785091400146e-01</leafValues></_></weakClassifiers></_>
    <!-- stage 7 -->
    <_>
      <maxWeakCount>7</maxWeakCount>
      <stageThreshold>-1.0836074352264404e+00</stageThreshold>
      <weakClassifiers>
        <_>
          <internalNodes>
            0 -1 11 8.3278775215148926e-02</internalNodes>
          <leafValues>
            -7.5362318754196167e-01 3.4328359365463257e-01</leafValues></_>
        <_>
          <internalNodes>
            0 -1 20 1.4381419867277145e-02</internalNodes>
          <leafValues>
            -6.8442827463150024e-01 3.2940396666526794e-01</leafValues></_>
        <_>
          <internalNodes>
            0 -1 9 6.2689129263162613e-03</internalNodes>
          <leafValues>
            3.9388516545295715e-01 -6.6149574518203735e-01</leafValues></_>
        <_>
          <internalNodes>
            0 -1 25 1.3162150979042053e-02</internalNodes>
          <leafValues>
            3.5872563719749451e-01 -6.6684687137603760e-01</leafValues></_>
        <_>
          <internalNodes>
            0 -1 44 9.6345348283648491e-03</internalNodes>
          <leafValues>
            -9.1804349422454834e-01 2.5521260499954224e-01</leafValues></_>
        <_>
          <internalNodes>
            0 -1 43 1.3064263388514519e-02</internalNodes>
          <leafValues>
            -7.9338949918746948e-01 1.8688496947288513e-01</leafValues></_>
        <_>
          <internalNodes>
            0 -1 22 3.4635365009307861e-02</internalNodes>
          <leafValues>
            2.2685685753822327e-01 -8.5217863321304321e-01</leafValues></_></weakClassifiers></_>
    <!-- stage 8 -->
    <_>
      <maxWeakCount>7</maxWeakCount>
      <stageThreshold>-5.6647372245788574e-01</stageThreshold>
      <weakClassifiers>
        <_>
          <internalNodes>
            0 -1 45 2.8276022523641586e-02</internalNodes>
          <leafValues>
            -5.8490568399429321e-01 7.1428573131561279e-01</leafValues></_>
        <_>
          <internalNodes>
            0 -1 15 1.2238049879670143e-02</internalNodes>
          <leafValues>
            -8.9967244863510132e-01 4.9221435189247131e-01</leafValues></_>
        <_>
          <internalNodes>
            0 -1 50 2.9179496690630913e-02</internalNodes>
          <leafValues>
            -7.2615212202072144e-01 4.8696234822273254e-01</leafValues></_>
        <_>
          <internalNodes>
            0 -1 16 9.3966070562601089e-03</internalNodes>
          <leafValues>
            -7.7026426792144775e-01 3.0015835165977478e-01</leafValues></_>
        <_>
          <internalNodes>
            0 -1 37 2.6746522635221481e-02</internalNodes>
          <leafValues>
            -5.1599192619323730e-01 4.9394491314888000e-01</leafValues></_>
        <_>
          <internalNodes>
            0 -1 42 2.4780750274658203e-02</internalNodes>
          <leafValues>
            3.9187213778495789e-01 -7.0504140853881836e-01</leafValues></_>
        <_>
          <internalNodes>
            0 -1 1 7.2960183024406433e-03</internalNodes>
          <leafValues>
            -9.7090554237365723e-01 2.5510343909263611e-01</leafValues></_></weakClassifiers></_>
    <!-- stage 9 -->
    <_>
      <maxWeakCount>6</maxWeakCount>
      <stageThreshold>-1.5843822062015533e-01</stageThreshold>
      <weakClassifiers>
        <_>
          <internalNodes>
            0 -1 9 9.1141127049922943e-03</internalNodes>
          <leafValues>
            7.8181821107864380e-01 -4.5454546809196472e-01</leafValues></_>
        <_>
          <internalNodes>
            0 -1 6 3.0548892915248871e-02</internalNodes>
          <leafValues>
            5.3038918972015381e-01 -8.1275582313537598e-01</leafValues></_>
        <_>
          <internalNodes>
            0 -1 41 5.6463096290826797e-02</internalNodes>
          <leafValues>
            -4.2528167366981506e-01 7.5831383466720581e-01</leafValues></_>
        <_>
          <internalNodes>
            0 -1 27 4.5104520395398140e-03</internalNodes>
          <leafValues>
            5.7891958951950073e-01 -4.5069608092308044e-01</leafValues></_>
        <_>
          <internalNodes>
            0 -1 8 6.5775411203503609e-03</internalNodes>
          <leafValues>
            5.0252342224121094e-01 -5.5785840749740601e-01</leafValues></_>
        <_>
          <internalNodes>
            0 -1 24 4.8947423696517944e-02</internalNodes>
          <leafValues>
            4.5270177721977234e-01 -8.5095238685607910e-01</leafValues></_></weakClassifiers></_></stages>
  <features>
    <_>
      <rect>
        0 0 8 8 19</rect></_>
    <_>
      <rect>
        0 4 8 8 1</rect></_>
    <_>
      <rect>
        0 4 8 8 26</rect></_>
    <_>
      <rect>
        0 4 8 8 27</rect></_>
    <_>
      <rect>
        0 8 8 8 4</rect></_>
    <_>
      <rect>
        0 8 8 8 22</rect></_>
    <_>
      <rect>
        0 12 8 8 7</rect></_>
    <_>
      <rect>
        0 12 8 8 8</rect></_>
    <_>
      <rect>
        0 12 8 8 19</rect></_>
    <_>
      <rect>
        0 12 8 8 20</rect></_>
    <_>
      <rect>
        0 16 8 8 9</rect></_>
    <_>
      <rect>
        0 16 8 8 17</rect></_>
    <_>
      <rect>
        4 0 8 8 1</rect></_>
    <_>
      <rect>
        4 0 8 8 17</rect></_>
    <_>
      <rect>
        4 0 8 8 19</rect></_>
    <_>
      <rect>
        4 4 8 8 17</rect></_>
    <_>
      <rect>
        4 12 8 8 26</rect></_>
    <_>
      <rect>
        4 16 8 8 17</rect></_>
    <_>
      <rect>
        4 16 8 8 26</rect></_>
    <_>
      <rect>
        4 16 8 8 30</rect></_>
    <_>
      <rect>
        8 0 8 8 2</rect></_>
    <_>
      <rect>
        8 0 8 8 35</rect></_>
    <_>
      <rect>
        12 0 8 8 8</rect></_>
    <_>
      <rect>
        12 4 8 8 14</rect></_>
    <_>
      <rect>
        12 4 8 8 35</rect></_>
    <_>
      <rect>
        12 8 8 8 13</rect></_>
    <_>
      <rect>
        12 8 8 8 26</rect></_>
    <_>
      <rect>
        12 8 8 8 32</rect></_>
    <_>
      <rect>
        12 12 8 8 22</rect></_>
    <_>
      <rect>
        12 16 8 8 0</rect></_>
    <_>
      <rect>
        12 16 8 8 30</rect></_>
    <_>
      <rect>
        12 16 8 8 35</rect></_>
    <_>
      <rect>
        16 0 8 8 5</rect></_>
    <_>
      <rect>
        16 0 8 8 24</rect></_>
    <_>
      <rect>
        16 0 8 8 33</rect></_>
    <_>
      <rect>
        16 4 8 8 6</rect></_>
    <_>
      <rect>
        16 4 8 8 15</rect></_>
    <_>
      <rect>
        16 4 8 8 18</rect></_>
    <_>
      <rect>
        16 8 8 8 6</rect></_>
    <_>
      <rect>
        16 8 8 8 24</rect></_>
    <_>
      <rect>
        16 8 8 8 31</rect></_>
    <_>
      <rect>
        16 12 8 8 24</rect></_>
    <_>
      <rect>
        0 0 8 16 0</rect></_>
    <_>
      <rect>
        0 0 8 16 30</rect></_>
    <_>
      <rect>
        16 0 8 16 14</rect></_>
    <_>
      <rect>
        16 0 8 16 24</rect></_>
    <_>
      <rect>
        0 0 16 8 24</rect></_>
    <_>
      <rect>
        0 0 16 8 33</rect></_>
    <_>
      <rect>
        0 0 16 8 35</rect></_>
    <_>
      <rect>
        0 4 16 8 19</rect></_>
    <_>
      <rect>
        0 12 16 8 0</rect></_></features></cascade>
</opencv_storage>
