<?xml version="1.0"?>
<opencv_storage>
<!-- Created using Computer Vision System Toolbox(tm) for MATLAB(R) -->
<!-- Version 9.2.0.556344 (R2017a) -->
<!-- Compatible with OpenCV 3.1 -->
<cascade>
  <stageType>BOOST</stageType>
  <featureType>HOG</featureType>
  <height>32</height>
  <width>32</width>
  <stageParams>
    <boostType>GAB</boostType>
    <minHitRate>9.9500000476837158e-01</minHitRate>
    <maxFalseAlarm>5.0000000000000000e-01</maxFalseAlarm>
    <weightTrimRate>9.4999999999999996e-01</weightTrimRate>
    <maxDepth>1</maxDepth>
    <maxWeakCount>100</maxWeakCount></stageParams>
  <featureParams>
    <maxCatCount>0</maxCatCount>
    <featSize>36</featSize></featureParams>
  <stageNum>6</stageNum>
  <stages>
    <!-- stage 0 -->
    <_>
      <maxWeakCount>2</maxWeakCount>
      <stageThreshold>-4.2526948451995850e-01</stageThreshold>
      <weakClassifiers>
        <_>
          <internalNodes>
            0 -1 19 7.8025706112384796e-02</internalNodes>
          <leafValues>
            -9.0909093618392944e-01 9.2079210281372070e-01</leafValues></_>
        <_>
          <internalNodes>
            0 -1 3 3.2213553786277771e-02</internalNodes>
          <leafValues>
            -8.8838011026382446e-01 4.8382142186164856e-01</leafValues></_></weakClassifiers></_>
    <!-- stage 1 -->
    <_>
      <maxWeakCount>3</maxWeakCount>
      <stageThreshold>-1.0020229816436768e+00</stageThreshold>
      <weakClassifiers>
        <_>
          <internalNodes>
            0 -1 6 8.6568154394626617e-02</internalNodes>
          <leafValues>
            -8.5520362854003906e-01 8.1999999284744263e-01</leafValues></_>
        <_>
          <internalNodes>
            0 -1 15 6.3978597521781921e-02</internalNodes>
          <leafValues>
            -6.1784690618515015e-01 7.7585399150848389e-01</leafValues></_>
        <_>
          <internalNodes>
            0 -1 17 1.1594452895224094e-02</internalNodes>
          <leafValues>
            4.7102755308151245e-01 -9.8192590475082397e-01</leafValues></_></weakClassifiers></_>
    <!-- stage 2 -->
    <_>
      <maxWeakCount>3</maxWeakCount>
      <stageThreshold>-1.1955311298370361e+00</stageThreshold>
      <weakClassifiers>
        <_>
          <internalNodes>
            0 -1 12 8.9282378554344177e-02</internalNodes>
          <leafValues>
            -8.2959640026092529e-01 7.9591834545135498e-01</leafValues></_>
        <_>
          <internalNodes>
            0 -1 8 1.8466765061020851e-02</internalNodes>
          <leafValues>
            -7.9510122537612915e-01 5.1338040828704834e-01</leafValues></_>
        <_>
          <internalNodes>
            0 -1 10 1.1950877495110035e-02</internalNodes>
          <leafValues>
            -8.6271291971206665e-01 4.2916655540466309e-01</leafValues></_></weakClassifiers></_>
    <!-- stage 3 -->
    <_>
      <maxWeakCount>4</maxWeakCount>
      <stageThreshold>-1.5880503654479980e+00</stageThreshold>
      <weakClassifiers>
        <_>
          <internalNodes>
            0 -1 9 7.6269246637821198e-02</internalNodes>
          <leafValues>
            -8.7000000476837158e-01 5.5371898412704468e-01</leafValues></_>
        <_>
          <internalNodes>
            0 -1 20 4.3241210281848907e-02</internalNodes>
          <leafValues>
            -5.7873928546905518e-01 6.2209242582321167e-01</leafValues></_>
        <_>
          <internalNodes>
            0 -1 11 1.8547635525465012e-02</internalNodes>
          <leafValues>
            -8.5935670137405396e-01 4.1473874449729919e-01</leafValues></_>
        <_>
          <internalNodes>
            0 -1 1 4.4303275644779205e-03</internalNodes>
          <leafValues>
            6.3863229751586914e-01 -5.5404978990554810e-01</leafValues></_></weakClassifiers></_>
    <!-- stage 4 -->
    <_>
      <maxWeakCount>5</maxWeakCount>
      <stageThreshold>-1.3431422710418701e+00</stageThreshold>
      <weakClassifiers>
        <_>
          <internalNodes>
            0 -1 0 5.0490468740463257e-02</internalNodes>
          <leafValues>
            -7.7678573131561279e-01 6.9072163105010986e-01</leafValues></_>
        <_>
          <internalNodes>
            0 -1 2 2.5032244622707367e-02</internalNodes>
          <leafValues>
            -7.8717726469039917e-01 5.6691414117813110e-01</leafValues></_>
        <_>
          <internalNodes>
            0 -1 18 4.0207881480455399e-02</internalNodes>
          <leafValues>
            -6.2011379003524780e-01 5.7468688488006592e-01</leafValues></_>
        <_>
          <internalNodes>
            0 -1 14 2.0354729145765305e-02</internalNodes>
          <leafValues>
            -5.6002378463745117e-01 5.1179760694503784e-01</leafValues></_>
        <_>
          <internalNodes>
            0 -1 13 1.2889470905065536e-02</internalNodes>
          <leafValues>
            -1. 3.2913681864738464e-01</leafValues></_></weakClassifiers></_>
    <!-- stage 5 -->
    <_>
      <maxWeakCount>4</maxWeakCount>
      <stageThreshold>-1.1225126981735229e+00</stageThreshold>
      <weakClassifiers>
        <_>
          <internalNodes>
            0 -1 16 5.9964600950479507e-02</internalNodes>
          <leafValues>
            -8.6538463830947876e-01 6.4601767063140869e-01</leafValues></_>
        <_>
          <internalNodes>
            0 -1 4 2.2893358021974564e-02</internalNodes>
          <leafValues>
            -8.8574087619781494e-01 3.0232766270637512e-01</leafValues></_>
        <_>
          <internalNodes>
            0 -1 7 6.2426216900348663e-03</internalNodes>
          <leafValues>
            -9.8513305187225342e-01 3.0158573389053345e-01</leafValues></_>
        <_>
          <internalNodes>
            0 -1 5 1.9942898303270340e-02</internalNodes>
          <leafValues>
            -7.5543415546417236e-01 3.2702705264091492e-01</leafValues></_></weakClassifiers></_></stages>
  <features>
    <_>
      <rect>
        0 4 8 8 27</rect></_>
    <_>
      <rect>
        0 12 8 8 19</rect></_>
    <_>
      <rect>
        4 0 8 8 1</rect></_>
    <_>
      <rect>
        4 0 8 8 19</rect></_>
    <_>
      <rect>
        4 0 8 8 35</rect></_>
    <_>
      <rect>
        4 12 8 8 8</rect></_>
    <_>
      <rect>
        4 16 8 8 17</rect></_>
    <_>
      <rect>
        4 16 8 8 30</rect></_>
    <_>
      <rect>
        12 4 8 8 14</rect></_>
    <_>
      <rect>
        12 16 8 8 8</rect></_>
    <_>
      <rect>
        12 16 8 8 30</rect></_>
    <_>
      <rect>
        16 0 8 8 5</rect></_>
    <_>
      <rect>
        16 0 8 8 24</rect></_>
    <_>
      <rect>
        16 0 8 8 33</rect></_>
    <_>
      <rect>
        16 4 8 8 19</rect></_>
    <_>
      <rect>
        16 8 8 8 6</rect></_>
    <_>
      <rect>
        16 8 8 8 26</rect></_>
    <_>
      <rect>
        16 8 8 8 31</rect></_>
    <_>
      <rect>
        16 0 8 16 24</rect></_>
    <_>
      <rect>
        0 0 16 8 33</rect></_>
    <_>
      <rect>
        0 4 16 8 18</rect></_></features></cascade>
</opencv_storage>
