<?xml version="1.0"?>
<opencv_storage>
<!-- Created using Computer Vision System Toolbox(tm) for MATLAB(R) -->
<!-- Version 9.2.0.556344 (R2017a) -->
<!-- Compatible with OpenCV 3.1 -->
<cascade>
  <stageType>BOOST</stageType>
  <featureType>HOG</featureType>
  <height>32</height>
  <width>32</width>
  <stageParams>
    <boostType>GAB</boostType>
    <minHitRate>9.9500000476837158e-01</minHitRate>
    <maxFalseAlarm>6.0000002384185791e-01</maxFalseAlarm>
    <weightTrimRate>9.4999999999999996e-01</weightTrimRate>
    <maxDepth>1</maxDepth>
    <maxWeakCount>100</maxWeakCount></stageParams>
  <featureParams>
    <maxCatCount>0</maxCatCount>
    <featSize>36</featSize></featureParams>
  <stageNum>17</stageNum>
  <stages>
    <!-- stage 0 -->
    <_>
      <maxWeakCount>2</maxWeakCount>
      <stageThreshold>-4.2526948451995850e-01</stageThreshold>
      <weakClassifiers>
        <_>
          <internalNodes>
            0 -1 48 7.8025706112384796e-02</internalNodes>
          <leafValues>
            -9.0909093618392944e-01 9.2079210281372070e-01</leafValues></_>
        <_>
          <internalNodes>
            0 -1 16 3.2213553786277771e-02</internalNodes>
          <leafValues>
            -8.8838011026382446e-01 4.8382142186164856e-01</leafValues></_></weakClassifiers></_>
    <!-- stage 1 -->
    <_>
      <maxWeakCount>3</maxWeakCount>
      <stageThreshold>-1.0020229816436768e+00</stageThreshold>
      <weakClassifiers>
        <_>
          <internalNodes>
            0 -1 21 8.6568154394626617e-02</internalNodes>
          <leafValues>
            -8.5520362854003906e-01 8.1999999284744263e-01</leafValues></_>
        <_>
          <internalNodes>
            0 -1 41 6.3978597521781921e-02</internalNodes>
          <leafValues>
            -6.1784690618515015e-01 7.7585399150848389e-01</leafValues></_>
        <_>
          <internalNodes>
            0 -1 43 1.1594452895224094e-02</internalNodes>
          <leafValues>
            4.7102755308151245e-01 -9.8192590475082397e-01</leafValues></_></weakClassifiers></_>
    <!-- stage 2 -->
    <_>
      <maxWeakCount>3</maxWeakCount>
      <stageThreshold>-1.1955311298370361e+00</stageThreshold>
      <weakClassifiers>
        <_>
          <internalNodes>
            0 -1 36 8.9282378554344177e-02</internalNodes>
          <leafValues>
            -8.2959640026092529e-01 7.9591834545135498e-01</leafValues></_>
        <_>
          <internalNodes>
            0 -1 29 1.8466765061020851e-02</internalNodes>
          <leafValues>
            -7.9510122537612915e-01 5.1338040828704834e-01</leafValues></_>
        <_>
          <internalNodes>
            0 -1 34 1.1950877495110035e-02</internalNodes>
          <leafValues>
            -8.6271291971206665e-01 4.2916655540466309e-01</leafValues></_></weakClassifiers></_>
    <!-- stage 3 -->
    <_>
      <maxWeakCount>3</maxWeakCount>
      <stageThreshold>-1.1072642803192139e+00</stageThreshold>
      <weakClassifiers>
        <_>
          <internalNodes>
            0 -1 33 7.6269246637821198e-02</internalNodes>
          <leafValues>
            -8.7000000476837158e-01 5.5371898412704468e-01</leafValues></_>
        <_>
          <internalNodes>
            0 -1 49 4.3241210281848907e-02</internalNodes>
          <leafValues>
            -5.7873928546905518e-01 6.2209242582321167e-01</leafValues></_>
        <_>
          <internalNodes>
            0 -1 35 1.8547635525465012e-02</internalNodes>
          <leafValues>
            -8.5935670137405396e-01 4.1473874449729919e-01</leafValues></_></weakClassifiers></_>
    <!-- stage 4 -->
    <_>
      <maxWeakCount>5</maxWeakCount>
      <stageThreshold>-1.3509457111358643e+00</stageThreshold>
      <weakClassifiers>
        <_>
          <internalNodes>
            0 -1 6 5.0490468740463257e-02</internalNodes>
          <leafValues>
            -7.7064222097396851e-01 5.9223300218582153e-01</leafValues></_>
        <_>
          <internalNodes>
            0 -1 14 3.0987091362476349e-02</internalNodes>
          <leafValues>
            -7.2568750381469727e-01 6.4735835790634155e-01</leafValues></_>
        <_>
          <internalNodes>
            0 -1 3 3.5601776093244553e-02</internalNodes>
          <leafValues>
            -6.4072275161743164e-01 5.6027752161026001e-01</leafValues></_>
        <_>
          <internalNodes>
            0 -1 53 1.2074703350663185e-02</internalNodes>
          <leafValues>
            -8.3975243568420410e-01 3.3748844265937805e-01</leafValues></_>
        <_>
          <internalNodes>
            0 -1 40 2.0351730287075043e-02</internalNodes>
          <leafValues>
            -6.0896390676498413e-01 4.4861838221549988e-01</leafValues></_></weakClassifiers></_>
    <!-- stage 5 -->
    <_>
      <maxWeakCount>3</maxWeakCount>
      <stageThreshold>-1.2713686227798462e+00</stageThreshold>
      <weakClassifiers>
        <_>
          <internalNodes>
            0 -1 11 8.3452478051185608e-02</internalNodes>
          <leafValues>
            -8.3414632081985474e-01 5.5172413587570190e-01</leafValues></_>
        <_>
          <internalNodes>
            0 -1 37 2.4381391704082489e-02</internalNodes>
          <leafValues>
            -8.8407528400421143e-01 3.3698496222496033e-01</leafValues></_>
        <_>
          <internalNodes>
            0 -1 1 2.3952016606926918e-02</internalNodes>
          <leafValues>
            -6.3007867336273193e-01 4.4685301184654236e-01</leafValues></_></weakClassifiers></_>
    <!-- stage 6 -->
    <_>
      <maxWeakCount>2</maxWeakCount>
      <stageThreshold>-6.5730381011962891e-01</stageThreshold>
      <weakClassifiers>
        <_>
          <internalNodes>
            0 -1 13 1.9844546914100647e-02</internalNodes>
          <leafValues>
            -8.1621623039245605e-01 3.2352942228317261e-01</leafValues></_>
        <_>
          <internalNodes>
            0 -1 10 1.4438951388001442e-02</internalNodes>
          <leafValues>
            -9.8083323240280151e-01 2.3981143534183502e-01</leafValues></_></weakClassifiers></_>
    <!-- stage 7 -->
    <_>
      <maxWeakCount>4</maxWeakCount>
      <stageThreshold>-1.8682737350463867e+00</stageThreshold>
      <weakClassifiers>
        <_>
          <internalNodes>
            0 -1 45 5.9893656522035599e-02</internalNodes>
          <leafValues>
            -7.2897195816040039e-01 4.5794391632080078e-01</leafValues></_>
        <_>
          <internalNodes>
            0 -1 14 2.5027196854352951e-02</internalNodes>
          <leafValues>
            -7.7498018741607666e-01 4.2028900980949402e-01</leafValues></_>
        <_>
          <internalNodes>
            0 -1 22 7.9773142933845520e-03</internalNodes>
          <leafValues>
            -9.1315686702728271e-01 3.2870718836784363e-01</leafValues></_>
        <_>
          <internalNodes>
            0 -1 38 5.1065176725387573e-02</internalNodes>
          <leafValues>
            -6.9302880764007568e-01 4.6887984871864319e-01</leafValues></_></weakClassifiers></_>
    <!-- stage 8 -->
    <_>
      <maxWeakCount>5</maxWeakCount>
      <stageThreshold>-1.4894186258316040e+00</stageThreshold>
      <weakClassifiers>
        <_>
          <internalNodes>
            0 -1 39 1.1420962959527969e-01</internalNodes>
          <leafValues>
            -7.4429225921630859e-01 5.4901963472366333e-01</leafValues></_>
        <_>
          <internalNodes>
            0 -1 6 5.7861324399709702e-02</internalNodes>
          <leafValues>
            -5.3604286909103394e-01 6.0056668519973755e-01</leafValues></_>
        <_>
          <internalNodes>
            0 -1 12 1.1113995686173439e-02</internalNodes>
          <leafValues>
            3.9463046193122864e-01 -7.0207297801971436e-01</leafValues></_>
        <_>
          <internalNodes>
            0 -1 7 1.4795996248722076e-02</internalNodes>
          <leafValues>
            2.8379672765731812e-01 -7.9020452499389648e-01</leafValues></_>
        <_>
          <internalNodes>
            0 -1 38 1.3148060999810696e-02</internalNodes>
          <leafValues>
            -1. 2.0919270813465118e-01</leafValues></_></weakClassifiers></_>
    <!-- stage 9 -->
    <_>
      <maxWeakCount>4</maxWeakCount>
      <stageThreshold>-9.6127623319625854e-01</stageThreshold>
      <weakClassifiers>
        <_>
          <internalNodes>
            0 -1 45 3.8456834852695465e-02</internalNodes>
          <leafValues>
            -8.2198953628540039e-01 3.8461539149284363e-01</leafValues></_>
        <_>
          <internalNodes>
            0 -1 51 3.3231280744075775e-02</internalNodes>
          <leafValues>
            -7.3544752597808838e-01 3.4866645932197571e-01</leafValues></_>
        <_>
          <internalNodes>
            0 -1 9 6.9210766814649105e-03</internalNodes>
          <leafValues>
            3.2484650611877441e-01 -6.8606382608413696e-01</leafValues></_>
        <_>
          <internalNodes>
            0 -1 25 1.5261920168995857e-02</internalNodes>
          <leafValues>
            -9.4367218017578125e-01 2.7131426334381104e-01</leafValues></_></weakClassifiers></_>
    <!-- stage 10 -->
    <_>
      <maxWeakCount>3</maxWeakCount>
      <stageThreshold>-4.3804746866226196e-01</stageThreshold>
      <weakClassifiers>
        <_>
          <internalNodes>
            0 -1 48 7.8767240047454834e-02</internalNodes>
          <leafValues>
            -8.7341773509979248e-01 1.9018404185771942e-01</leafValues></_>
        <_>
          <internalNodes>
            0 -1 28 8.4735620766878128e-03</internalNodes>
          <leafValues>
            -7.9768395423889160e-01 2.7605623006820679e-01</leafValues></_>
        <_>
          <internalNodes>
            0 -1 5 1.5962937846779823e-02</internalNodes>
          <leafValues>
            2.0355060696601868e-01 -9.0428769588470459e-01</leafValues></_></weakClassifiers></_>
    <!-- stage 11 -->
    <_>
      <maxWeakCount>5</maxWeakCount>
      <stageThreshold>-1.3531059026718140e+00</stageThreshold>
      <weakClassifiers>
        <_>
          <internalNodes>
            0 -1 39 1.2175844609737396e-01</internalNodes>
          <leafValues>
            -6.7708331346511841e-01 3.8181817531585693e-01</leafValues></_>
        <_>
          <internalNodes>
            0 -1 32 1.3521704822778702e-03</internalNodes>
          <leafValues>
            7.5228720903396606e-01 -3.5242760181427002e-01</leafValues></_>
        <_>
          <internalNodes>
            0 -1 47 9.4073601067066193e-03</internalNodes>
          <leafValues>
            -8.7455564737319946e-01 2.7725887298583984e-01</leafValues></_>
        <_>
          <internalNodes>
            0 -1 30 1.2057133018970490e-02</internalNodes>
          <leafValues>
            3.3878254890441895e-01 -7.2695541381835938e-01</leafValues></_>
        <_>
          <internalNodes>
            0 -1 18 5.8444188907742500e-03</internalNodes>
          <leafValues>
            -9.6874994039535522e-01 1.2610153853893280e-01</leafValues></_></weakClassifiers></_>
    <!-- stage 12 -->
    <_>
      <maxWeakCount>6</maxWeakCount>
      <stageThreshold>-9.3145298957824707e-01</stageThreshold>
      <weakClassifiers>
        <_>
          <internalNodes>
            0 -1 31 6.4271979033946991e-02</internalNodes>
          <leafValues>
            -7.4757283926010132e-01 5.0400000810623169e-01</leafValues></_>
        <_>
          <internalNodes>
            0 -1 50 1.7309401184320450e-02</internalNodes>
          <leafValues>
            -6.6868215799331665e-01 3.7073773145675659e-01</leafValues></_>
        <_>
          <internalNodes>
            0 -1 20 4.0154099464416504e-02</internalNodes>
          <leafValues>
            -5.0700461864471436e-01 4.9278062582015991e-01</leafValues></_>
        <_>
          <internalNodes>
            0 -1 4 1.6486831009387970e-02</internalNodes>
          <leafValues>
            -7.0624524354934692e-01 3.9048659801483154e-01</leafValues></_>
        <_>
          <internalNodes>
            0 -1 8 9.2205088585615158e-03</internalNodes>
          <leafValues>
            2.9296433925628662e-01 -7.1279269456863403e-01</leafValues></_>
        <_>
          <internalNodes>
            0 -1 17 9.7135026007890701e-03</internalNodes>
          <leafValues>
            -6.7382490634918213e-01 3.6566767096519470e-01</leafValues></_></weakClassifiers></_>
    <!-- stage 13 -->
    <_>
      <maxWeakCount>2</maxWeakCount>
      <stageThreshold>-1.5856043994426727e-01</stageThreshold>
      <weakClassifiers>
        <_>
          <internalNodes>
            0 -1 46 4.4261567294597626e-02</internalNodes>
          <leafValues>
            5.3284668922424316e-01 -8.8571429252624512e-01</leafValues></_>
        <_>
          <internalNodes>
            0 -1 26 4.2533472180366516e-02</internalNodes>
          <leafValues>
            -5.8285731077194214e-01 7.2715383768081665e-01</leafValues></_></weakClassifiers></_>
    <!-- stage 14 -->
    <_>
      <maxWeakCount>6</maxWeakCount>
      <stageThreshold>-4.5087397098541260e-01</stageThreshold>
      <weakClassifiers>
        <_>
          <internalNodes>
            0 -1 11 9.1498337686061859e-02</internalNodes>
          <leafValues>
            -3.7142857909202576e-01 8.2795697450637817e-01</leafValues></_>
        <_>
          <internalNodes>
            0 -1 2 6.1804044991731644e-02</internalNodes>
          <leafValues>
            -3.2851511240005493e-01 7.4181818962097168e-01</leafValues></_>
        <_>
          <internalNodes>
            0 -1 44 1.0015323758125305e-02</internalNodes>
          <leafValues>
            4.8227939009666443e-01 -4.9173232913017273e-01</leafValues></_>
        <_>
          <internalNodes>
            0 -1 45 7.1575213223695755e-03</internalNodes>
          <leafValues>
            -9.5814418792724609e-01 2.5362107157707214e-01</leafValues></_>
        <_>
          <internalNodes>
            0 -1 15 1.8751986324787140e-02</internalNodes>
          <leafValues>
            4.2137247323989868e-01 -6.9326907396316528e-01</leafValues></_>
        <_>
          <internalNodes>
            0 -1 19 2.0665530115365982e-02</internalNodes>
          <leafValues>
            2.0643834769725800e-01 -9.6038788557052612e-01</leafValues></_></weakClassifiers></_>
    <!-- stage 15 -->
    <_>
      <maxWeakCount>4</maxWeakCount>
      <stageThreshold>2.6320081204175949e-02</stageThreshold>
      <weakClassifiers>
        <_>
          <internalNodes>
            0 -1 24 6.6793620586395264e-02</internalNodes>
          <leafValues>
            -1.8918919563293457e-01 8.7755101919174194e-01</leafValues></_>
        <_>
          <internalNodes>
            0 -1 0 2.0525919273495674e-02</internalNodes>
          <leafValues>
            -5.9956431388854980e-01 6.7440676689147949e-01</leafValues></_>
        <_>
          <internalNodes>
            0 -1 27 5.4490491747856140e-02</internalNodes>
          <leafValues>
            3.6664813756942749e-01 -1.</leafValues></_>
        <_>
          <internalNodes>
            0 -1 42 3.6803632974624634e-02</internalNodes>
          <leafValues>
            4.4842541217803955e-01 -7.0285344123840332e-01</leafValues></_></weakClassifiers></_>
    <!-- stage 16 -->
    <_>
      <maxWeakCount>4</maxWeakCount>
      <stageThreshold>3.3074066042900085e-01</stageThreshold>
      <weakClassifiers>
        <_>
          <internalNodes>
            0 -1 24 5.8004073798656464e-02</internalNodes>
          <leafValues>
            -2.7272728085517883e-01 8.9999997615814209e-01</leafValues></_>
        <_>
          <internalNodes>
            0 -1 54 3.1537011265754700e-02</internalNodes>
          <leafValues>
            -4.8844915628433228e-01 8.4706771373748779e-01</leafValues></_>
        <_>
          <internalNodes>
            0 -1 52 1.7335247248411179e-02</internalNodes>
          <leafValues>
            7.0657181739807129e-01 -4.7994220256805420e-01</leafValues></_>
        <_>
          <internalNodes>
            0 -1 23 3.4785885363817215e-02</internalNodes>
          <leafValues>
            3.9913201332092285e-01 -8.2685136795043945e-01</leafValues></_></weakClassifiers></_></stages>
  <features>
    <_>
      <rect>
        0 0 8 8 10</rect></_>
    <_>
      <rect>
        0 0 8 8 11</rect></_>
    <_>
      <rect>
        0 0 8 8 19</rect></_>
    <_>
      <rect>
        0 0 8 8 33</rect></_>
    <_>
      <rect>
        0 4 8 8 1</rect></_>
    <_>
      <rect>
        0 4 8 8 22</rect></_>
    <_>
      <rect>
        0 4 8 8 27</rect></_>
    <_>
      <rect>
        0 8 8 8 4</rect></_>
    <_>
      <rect>
        0 12 8 8 19</rect></_>
    <_>
      <rect>
        0 12 8 8 20</rect></_>
    <_>
      <rect>
        0 16 8 8 9</rect></_>
    <_>
      <rect>
        0 16 8 8 17</rect></_>
    <_>
      <rect>
        0 16 8 8 19</rect></_>
    <_>
      <rect>
        0 16 8 8 30</rect></_>
    <_>
      <rect>
        4 0 8 8 1</rect></_>
    <_>
      <rect>
        4 0 8 8 7</rect></_>
    <_>
      <rect>
        4 0 8 8 19</rect></_>
    <_>
      <rect>
        4 4 8 8 9</rect></_>
    <_>
      <rect>
        4 8 8 8 31</rect></_>
    <_>
      <rect>
        4 12 8 8 20</rect></_>
    <_>
      <rect>
        4 16 8 8 9</rect></_>
    <_>
      <rect>
        4 16 8 8 17</rect></_>
    <_>
      <rect>
        4 16 8 8 30</rect></_>
    <_>
      <rect>
        8 0 8 8 17</rect></_>
    <_>
      <rect>
        8 0 8 8 33</rect></_>
    <_>
      <rect>
        8 0 8 8 35</rect></_>
    <_>
      <rect>
        8 4 8 8 18</rect></_>
    <_>
      <rect>
        8 16 8 8 35</rect></_>
    <_>
      <rect>
        12 0 8 8 3</rect></_>
    <_>
      <rect>
        12 4 8 8 14</rect></_>
    <_>
      <rect>
        12 8 8 8 13</rect></_>
    <_>
      <rect>
        12 8 8 8 26</rect></_>
    <_>
      <rect>
        12 8 8 8 31</rect></_>
    <_>
      <rect>
        12 16 8 8 8</rect></_>
    <_>
      <rect>
        12 16 8 8 30</rect></_>
    <_>
      <rect>
        16 0 8 8 5</rect></_>
    <_>
      <rect>
        16 0 8 8 24</rect></_>
    <_>
      <rect>
        16 0 8 8 26</rect></_>
    <_>
      <rect>
        16 0 8 8 33</rect></_>
    <_>
      <rect>
        16 4 8 8 6</rect></_>
    <_>
      <rect>
        16 4 8 8 19</rect></_>
    <_>
      <rect>
        16 8 8 8 6</rect></_>
    <_>
      <rect>
        16 8 8 8 16</rect></_>
    <_>
      <rect>
        16 8 8 8 31</rect></_>
    <_>
      <rect>
        16 12 8 8 13</rect></_>
    <_>
      <rect>
        16 12 8 8 24</rect></_>
    <_>
      <rect>
        12 0 8 16 35</rect></_>
    <_>
      <rect>
        16 0 8 16 14</rect></_>
    <_>
      <rect>
        0 0 16 8 33</rect></_>
    <_>
      <rect>
        0 4 16 8 18</rect></_>
    <_>
      <rect>
        0 8 16 8 6</rect></_>
    <_>
      <rect>
        0 12 16 8 1</rect></_>
    <_>
      <rect>
        0 16 16 8 32</rect></_>
    <_>
      <rect>
        0 0 16 16 24</rect></_>
    <_>
      <rect>
        0 0 16 16 35</rect></_></features></cascade>
</opencv_storage>
