<?xml version="1.0"?>
<opencv_storage>
<!-- Created using Computer Vision System Toolbox(tm) for MATLAB(R) -->
<!-- Version 9.2.0.556344 (R2017a) -->
<!-- Compatible with OpenCV 3.1 -->
<cascade>
  <stageType>BOOST</stageType>
  <featureType>HOG</featureType>
  <height>32</height>
  <width>32</width>
  <stageParams>
    <boostType>GAB</boostType>
    <minHitRate>9.9500000476837158e-01</minHitRate>
    <maxFalseAlarm>6.9999998807907104e-01</maxFalseAlarm>
    <weightTrimRate>9.4999999999999996e-01</weightTrimRate>
    <maxDepth>1</maxDepth>
    <maxWeakCount>100</maxWeakCount></stageParams>
  <featureParams>
    <maxCatCount>0</maxCatCount>
    <featSize>36</featSize></featureParams>
  <stageNum>7</stageNum>
  <stages>
    <!-- stage 0 -->
    <_>
      <maxWeakCount>2</maxWeakCount>
      <stageThreshold>-4.2526948451995850e-01</stageThreshold>
      <weakClassifiers>
        <_>
          <internalNodes>
            0 -1 18 7.8025706112384796e-02</internalNodes>
          <leafValues>
            -9.0909093618392944e-01 9.2079210281372070e-01</leafValues></_>
        <_>
          <internalNodes>
            0 -1 7 3.2213553786277771e-02</internalNodes>
          <leafValues>
            -8.8838011026382446e-01 4.8382142186164856e-01</leafValues></_></weakClassifiers></_>
    <!-- stage 1 -->
    <_>
      <maxWeakCount>3</maxWeakCount>
      <stageThreshold>-1.0020229816436768e+00</stageThreshold>
      <weakClassifiers>
        <_>
          <internalNodes>
            0 -1 8 8.6568154394626617e-02</internalNodes>
          <leafValues>
            -8.5520362854003906e-01 8.1999999284744263e-01</leafValues></_>
        <_>
          <internalNodes>
            0 -1 16 6.3978597521781921e-02</internalNodes>
          <leafValues>
            -6.1784690618515015e-01 7.7585399150848389e-01</leafValues></_>
        <_>
          <internalNodes>
            0 -1 17 1.1594452895224094e-02</internalNodes>
          <leafValues>
            4.7102755308151245e-01 -9.8192590475082397e-01</leafValues></_></weakClassifiers></_>
    <!-- stage 2 -->
    <_>
      <maxWeakCount>3</maxWeakCount>
      <stageThreshold>-1.1955311298370361e+00</stageThreshold>
      <weakClassifiers>
        <_>
          <internalNodes>
            0 -1 13 8.9282378554344177e-02</internalNodes>
          <leafValues>
            -8.2959640026092529e-01 7.9591834545135498e-01</leafValues></_>
        <_>
          <internalNodes>
            0 -1 9 1.8466765061020851e-02</internalNodes>
          <leafValues>
            -7.9510122537612915e-01 5.1338040828704834e-01</leafValues></_>
        <_>
          <internalNodes>
            0 -1 11 1.1950877495110035e-02</internalNodes>
          <leafValues>
            -8.6271291971206665e-01 4.2916655540466309e-01</leafValues></_></weakClassifiers></_>
    <!-- stage 3 -->
    <_>
      <maxWeakCount>3</maxWeakCount>
      <stageThreshold>-1.1072642803192139e+00</stageThreshold>
      <weakClassifiers>
        <_>
          <internalNodes>
            0 -1 10 7.6269246637821198e-02</internalNodes>
          <leafValues>
            -8.7000000476837158e-01 5.5371898412704468e-01</leafValues></_>
        <_>
          <internalNodes>
            0 -1 19 4.3241210281848907e-02</internalNodes>
          <leafValues>
            -5.7873928546905518e-01 6.2209242582321167e-01</leafValues></_>
        <_>
          <internalNodes>
            0 -1 12 1.8547635525465012e-02</internalNodes>
          <leafValues>
            -8.5935670137405396e-01 4.1473874449729919e-01</leafValues></_></weakClassifiers></_>
    <!-- stage 4 -->
    <_>
      <maxWeakCount>5</maxWeakCount>
      <stageThreshold>-1.3509457111358643e+00</stageThreshold>
      <weakClassifiers>
        <_>
          <internalNodes>
            0 -1 2 5.0490468740463257e-02</internalNodes>
          <leafValues>
            -7.7064222097396851e-01 5.9223300218582153e-01</leafValues></_>
        <_>
          <internalNodes>
            0 -1 6 3.0987091362476349e-02</internalNodes>
          <leafValues>
            -7.2568750381469727e-01 6.4735835790634155e-01</leafValues></_>
        <_>
          <internalNodes>
            0 -1 1 3.5601776093244553e-02</internalNodes>
          <leafValues>
            -6.4072275161743164e-01 5.6027752161026001e-01</leafValues></_>
        <_>
          <internalNodes>
            0 -1 20 1.2074703350663185e-02</internalNodes>
          <leafValues>
            -8.3975243568420410e-01 3.3748844265937805e-01</leafValues></_>
        <_>
          <internalNodes>
            0 -1 15 2.0351730287075043e-02</internalNodes>
          <leafValues>
            -6.0896390676498413e-01 4.4861838221549988e-01</leafValues></_></weakClassifiers></_>
    <!-- stage 5 -->
    <_>
      <maxWeakCount>3</maxWeakCount>
      <stageThreshold>-1.2713686227798462e+00</stageThreshold>
      <weakClassifiers>
        <_>
          <internalNodes>
            0 -1 4 8.3452478051185608e-02</internalNodes>
          <leafValues>
            -8.3414632081985474e-01 5.5172413587570190e-01</leafValues></_>
        <_>
          <internalNodes>
            0 -1 14 2.4381391704082489e-02</internalNodes>
          <leafValues>
            -8.8407528400421143e-01 3.3698496222496033e-01</leafValues></_>
        <_>
          <internalNodes>
            0 -1 0 2.3952016606926918e-02</internalNodes>
          <leafValues>
            -6.3007867336273193e-01 4.4685301184654236e-01</leafValues></_></weakClassifiers></_>
    <!-- stage 6 -->
    <_>
      <maxWeakCount>2</maxWeakCount>
      <stageThreshold>-6.5730381011962891e-01</stageThreshold>
      <weakClassifiers>
        <_>
          <internalNodes>
            0 -1 5 1.9844546914100647e-02</internalNodes>
          <leafValues>
            -8.1621623039245605e-01 3.2352942228317261e-01</leafValues></_>
        <_>
          <internalNodes>
            0 -1 3 1.4438951388001442e-02</internalNodes>
          <leafValues>
            -9.8083323240280151e-01 2.3981143534183502e-01</leafValues></_></weakClassifiers></_></stages>
  <features>
    <_>
      <rect>
        0 0 8 8 11</rect></_>
    <_>
      <rect>
        0 0 8 8 33</rect></_>
    <_>
      <rect>
        0 4 8 8 27</rect></_>
    <_>
      <rect>
        0 16 8 8 9</rect></_>
    <_>
      <rect>
        0 16 8 8 17</rect></_>
    <_>
      <rect>
        0 16 8 8 30</rect></_>
    <_>
      <rect>
        4 0 8 8 1</rect></_>
    <_>
      <rect>
        4 0 8 8 19</rect></_>
    <_>
      <rect>
        4 16 8 8 17</rect></_>
    <_>
      <rect>
        12 4 8 8 14</rect></_>
    <_>
      <rect>
        12 16 8 8 8</rect></_>
    <_>
      <rect>
        12 16 8 8 30</rect></_>
    <_>
      <rect>
        16 0 8 8 5</rect></_>
    <_>
      <rect>
        16 0 8 8 24</rect></_>
    <_>
      <rect>
        16 0 8 8 26</rect></_>
    <_>
      <rect>
        16 4 8 8 19</rect></_>
    <_>
      <rect>
        16 8 8 8 6</rect></_>
    <_>
      <rect>
        16 8 8 8 31</rect></_>
    <_>
      <rect>
        0 0 16 8 33</rect></_>
    <_>
      <rect>
        0 4 16 8 18</rect></_>
    <_>
      <rect>
        0 0 16 16 24</rect></_></features></cascade>
</opencv_storage>
