<?xml version="1.0"?>
<opencv_storage>
<stage5>
  <maxWeakCount>7</maxWeakCount>
  <stageThreshold>-1.2608054876327515e+00</stageThreshold>
  <weakClassifiers>
    <_>
      <internalNodes>
        0 -1 852 6.3764348626136780e-02</internalNodes>
      <leafValues>
        -7.3684209585189819e-01 6.5591394901275635e-01</leafValues></_>
    <_>
      <internalNodes>
        0 -1 762 6.1771869659423828e-02</internalNodes>
      <leafValues>
        -6.1367416381835938e-01 3.6160975694656372e-01</leafValues></_>
    <_>
      <internalNodes>
        0 -1 894 6.3596954569220543e-03</internalNodes>
      <leafValues>
        -7.5066965818405151e-01 2.6540586352348328e-01</leafValues></_>
    <_>
      <internalNodes>
        0 -1 164 2.1965390071272850e-02</internalNodes>
      <leafValues>
        2.0870406925678253e-01 -9.1413909196853638e-01</leafValues></_>
    <_>
      <internalNodes>
        0 -1 233 1.2160710990428925e-02</internalNodes>
      <leafValues>
        -8.6929088830947876e-01 1.8841519951820374e-01</leafValues></_>
    <_>
      <internalNodes>
        0 -1 930 1.2560594826936722e-02</internalNodes>
      <leafValues>
        -8.1138706207275391e-01 2.7068555355072021e-01</leafValues></_>
    <_>
      <internalNodes>
        0 -1 1248 1.0484840720891953e-02</internalNodes>
      <leafValues>
        -8.9075028896331787e-01 2.3857270181179047e-01</leafValues></_></weakClassifiers></stage5>
</opencv_storage>
