<?xml version="1.0"?>
<opencv_storage>
<!-- Created using Computer Vision System Toolbox(tm) for MATLAB(R) -->
<!-- Version 9.2.0.556344 (R2017a) -->
<!-- Compatible with OpenCV 3.1 -->
<cascade>
  <stageType>BOOST</stageType>
  <featureType>HOG</featureType>
  <height>33</height>
  <width>32</width>
  <stageParams>
    <boostType>GAB</boostType>
    <minHitRate>9.9500000476837158e-01</minHitRate>
    <maxFalseAlarm>4.0000000596046448e-01</maxFalseAlarm>
    <weightTrimRate>9.4999999999999996e-01</weightTrimRate>
    <maxDepth>1</maxDepth>
    <maxWeakCount>100</maxWeakCount></stageParams>
  <featureParams>
    <maxCatCount>0</maxCatCount>
    <featSize>36</featSize></featureParams>
  <stageNum>9</stageNum>
  <stages>
    <!-- stage 0 -->
    <_>
      <maxWeakCount>2</maxWeakCount>
      <stageThreshold>-1.9041517376899719e-01</stageThreshold>
      <weakClassifiers>
        <_>
          <internalNodes>
            0 -1 1 6.9925695657730103e-02</internalNodes>
          <leafValues>
            -9.8076921701431274e-01 8.4795320034027100e-01</leafValues></_>
        <_>
          <internalNodes>
            0 -1 15 5.4817222058773041e-02</internalNodes>
          <leafValues>
            -9.8148727416992188e-01 7.9035407304763794e-01</leafValues></_></weakClassifiers></_>
    <!-- stage 1 -->
    <_>
      <maxWeakCount>3</maxWeakCount>
      <stageThreshold>-1.2597676515579224e+00</stageThreshold>
      <weakClassifiers>
        <_>
          <internalNodes>
            0 -1 18 6.2570139765739441e-02</internalNodes>
          <leafValues>
            -9.3630576133728027e-01 7.8698223829269409e-01</leafValues></_>
        <_>
          <internalNodes>
            0 -1 11 7.7791489660739899e-02</internalNodes>
          <leafValues>
            -9.2985725402832031e-01 7.3799192905426025e-01</leafValues></_>
        <_>
          <internalNodes>
            0 -1 7 4.0583766996860504e-02</internalNodes>
          <leafValues>
            -8.5222327709197998e-01 6.0639542341232300e-01</leafValues></_></weakClassifiers></_>
    <!-- stage 2 -->
    <_>
      <maxWeakCount>2</maxWeakCount>
      <stageThreshold>-4.4304731488227844e-01</stageThreshold>
      <weakClassifiers>
        <_>
          <internalNodes>
            0 -1 2 5.8587983250617981e-02</internalNodes>
          <leafValues>
            -9.4244605302810669e-01 4.9268293380737305e-01</leafValues></_>
        <_>
          <internalNodes>
            0 -1 0 1.4066195115447044e-02</internalNodes>
          <leafValues>
            -9.0950351953506470e-01 4.9939873814582825e-01</leafValues></_></weakClassifiers></_>
    <!-- stage 3 -->
    <_>
      <maxWeakCount>2</maxWeakCount>
      <stageThreshold>-4.7858822345733643e-01</stageThreshold>
      <weakClassifiers>
        <_>
          <internalNodes>
            0 -1 3 7.4066035449504852e-02</internalNodes>
          <leafValues>
            -9.8400002717971802e-01 3.6480686068534851e-01</leafValues></_>
        <_>
          <internalNodes>
            0 -1 4 2.9430501163005829e-02</internalNodes>
          <leafValues>
            -8.4339511394500732e-01 5.7070147991180420e-01</leafValues></_></weakClassifiers></_>
    <!-- stage 4 -->
    <_>
      <maxWeakCount>3</maxWeakCount>
      <stageThreshold>-1.0790443420410156e+00</stageThreshold>
      <weakClassifiers>
        <_>
          <internalNodes>
            0 -1 6 6.8018272519111633e-02</internalNodes>
          <leafValues>
            -8.1871342658996582e-01 8.4397161006927490e-01</leafValues></_>
        <_>
          <internalNodes>
            0 -1 20 6.6124871373176575e-02</internalNodes>
          <leafValues>
            -8.5941988229751587e-01 6.3685506582260132e-01</leafValues></_>
        <_>
          <internalNodes>
            0 -1 10 8.3178035914897919e-02</internalNodes>
          <leafValues>
            -8.5096019506454468e-01 5.9908896684646606e-01</leafValues></_></weakClassifiers></_>
    <!-- stage 5 -->
    <_>
      <maxWeakCount>5</maxWeakCount>
      <stageThreshold>-1.5613453388214111e+00</stageThreshold>
      <weakClassifiers>
        <_>
          <internalNodes>
            0 -1 22 4.7224756330251694e-02</internalNodes>
          <leafValues>
            -8.7290972471237183e-01 5.4347825050354004e-01</leafValues></_>
        <_>
          <internalNodes>
            0 -1 9 2.4310003966093063e-02</internalNodes>
          <leafValues>
            -8.3114844560623169e-01 4.6161365509033203e-01</leafValues></_>
        <_>
          <internalNodes>
            0 -1 23 3.2072477042675018e-02</internalNodes>
          <leafValues>
            -9.6503227949142456e-01 3.7582322955131531e-01</leafValues></_>
        <_>
          <internalNodes>
            0 -1 18 8.0139115452766418e-02</internalNodes>
          <leafValues>
            -7.3173159360885620e-01 6.1406415700912476e-01</leafValues></_>
        <_>
          <internalNodes>
            0 -1 12 1.0890319943428040e-02</internalNodes>
          <leafValues>
            5.5055552721023560e-01 -7.9414093494415283e-01</leafValues></_></weakClassifiers></_>
    <!-- stage 6 -->
    <_>
      <maxWeakCount>4</maxWeakCount>
      <stageThreshold>-5.6070339679718018e-01</stageThreshold>
      <weakClassifiers>
        <_>
          <internalNodes>
            0 -1 5 3.9195311255753040e-03</internalNodes>
          <leafValues>
            7.3248410224914551e-01 -7.3262029886245728e-01</leafValues></_>
        <_>
          <internalNodes>
            0 -1 13 2.1241961047053337e-02</internalNodes>
          <leafValues>
            -7.3948335647583008e-01 6.0542690753936768e-01</leafValues></_>
        <_>
          <internalNodes>
            0 -1 8 5.8877766132354736e-02</internalNodes>
          <leafValues>
            -8.4409594535827637e-01 5.4754662513732910e-01</leafValues></_>
        <_>
          <internalNodes>
            0 -1 19 1.7897326499223709e-02</internalNodes>
          <leafValues>
            -9.2876285314559937e-01 4.1058593988418579e-01</leafValues></_></weakClassifiers></_>
    <!-- stage 7 -->
    <_>
      <maxWeakCount>4</maxWeakCount>
      <stageThreshold>-1.5729542970657349e+00</stageThreshold>
      <weakClassifiers>
        <_>
          <internalNodes>
            0 -1 21 3.8108773529529572e-02</internalNodes>
          <leafValues>
            -8.0952382087707520e-01 7.5141245126724243e-01</leafValues></_>
        <_>
          <internalNodes>
            0 -1 16 8.4228605031967163e-02</internalNodes>
          <leafValues>
            -7.4653834104537964e-01 7.5167328119277954e-01</leafValues></_>
        <_>
          <internalNodes>
            0 -1 17 7.7649630606174469e-02</internalNodes>
          <leafValues>
            -8.1685227155685425e-01 6.3294309377670288e-01</leafValues></_>
        <_>
          <internalNodes>
            0 -1 14 4.1076321154832840e-02</internalNodes>
          <leafValues>
            -7.6097607612609863e-01 6.6876226663589478e-01</leafValues></_></weakClassifiers></_>
    <!-- stage 8 -->
    <_>
      <maxWeakCount>1</maxWeakCount>
      <stageThreshold>8.3999997377395630e-01</stageThreshold>
      <weakClassifiers>
        <_>
          <internalNodes>
            0 -1 10 4.1136376559734344e-02</internalNodes>
          <leafValues>
            -1. 8.3999997377395630e-01</leafValues></_></weakClassifiers></_></stages>
  <features>
    <_>
      <rect>
        0 0 8 8 30</rect></_>
    <_>
      <rect>
        0 4 8 8 1</rect></_>
    <_>
      <rect>
        0 16 8 8 24</rect></_>
    <_>
      <rect>
        4 0 8 8 1</rect></_>
    <_>
      <rect>
        4 0 8 8 12</rect></_>
    <_>
      <rect>
        4 0 8 8 17</rect></_>
    <_>
      <rect>
        4 4 8 8 35</rect></_>
    <_>
      <rect>
        4 12 8 8 6</rect></_>
    <_>
      <rect>
        12 0 8 8 15</rect></_>
    <_>
      <rect>
        12 16 8 8 6</rect></_>
    <_>
      <rect>
        12 16 8 8 28</rect></_>
    <_>
      <rect>
        16 4 8 8 15</rect></_>
    <_>
      <rect>
        16 8 8 8 33</rect></_>
    <_>
      <rect>
        16 12 8 8 7</rect></_>
    <_>
      <rect>
        16 12 8 8 17</rect></_>
    <_>
      <rect>
        16 12 8 8 28</rect></_>
    <_>
      <rect>
        16 16 8 8 28</rect></_>
    <_>
      <rect>
        0 0 8 16 1</rect></_>
    <_>
      <rect>
        4 0 8 16 24</rect></_>
    <_>
      <rect>
        12 0 8 16 3</rect></_>
    <_>
      <rect>
        12 0 8 16 15</rect></_>
    <_>
      <rect>
        0 0 16 8 33</rect></_>
    <_>
      <rect>
        0 4 16 8 26</rect></_>
    <_>
      <rect>
        0 4 16 8 35</rect></_></features></cascade>
</opencv_storage>
