<?xml version="1.0"?>
<opencv_storage>
<!-- Created using Computer Vision System Toolbox(tm) for MATLAB(R) -->
<!-- Version 9.2.0.556344 (R2017a) -->
<!-- Compatible with OpenCV 3.1 -->
<cascade>
  <stageType>BOOST</stageType>
  <featureType>HOG</featureType>
  <height>33</height>
  <width>32</width>
  <stageParams>
    <boostType>GAB</boostType>
    <minHitRate>9.9500000476837158e-01</minHitRate>
    <maxFalseAlarm>8.0000001192092896e-01</maxFalseAlarm>
    <weightTrimRate>9.4999999999999996e-01</weightTrimRate>
    <maxDepth>1</maxDepth>
    <maxWeakCount>100</maxWeakCount></stageParams>
  <featureParams>
    <maxCatCount>0</maxCatCount>
    <featSize>36</featSize></featureParams>
  <stageNum>2</stageNum>
  <stages>
    <!-- stage 0 -->
    <_>
      <maxWeakCount>2</maxWeakCount>
      <stageThreshold>-1.9244059920310974e-01</stageThreshold>
      <weakClassifiers>
        <_>
          <internalNodes>
            0 -1 0 6.9925695657730103e-02</internalNodes>
          <leafValues>
            -9.8713827133178711e-01 8.4883719682693481e-01</leafValues></_>
        <_>
          <internalNodes>
            0 -1 3 5.0659954547882080e-02</internalNodes>
          <leafValues>
            -9.8760420083999634e-01 7.9469764232635498e-01</leafValues></_></weakClassifiers></_>
    <!-- stage 1 -->
    <_>
      <maxWeakCount>3</maxWeakCount>
      <stageThreshold>-1.2293769121170044e+00</stageThreshold>
      <weakClassifiers>
        <_>
          <internalNodes>
            0 -1 4 6.2442544847726822e-02</internalNodes>
          <leafValues>
            -9.2638039588928223e-01 8.9808917045593262e-01</leafValues></_>
        <_>
          <internalNodes>
            0 -1 2 7.7603220939636230e-02</internalNodes>
          <leafValues>
            -9.2439174652099609e-01 8.4630239009857178e-01</leafValues></_>
        <_>
          <internalNodes>
            0 -1 1 5.5800728499889374e-02</internalNodes>
          <leafValues>
            -9.9411487579345703e-01 6.2139528989791870e-01</leafValues></_></weakClassifiers></_></stages>
  <features>
    <_>
      <rect>
        0 4 8 8 1</rect></_>
    <_>
      <rect>
        4 16 8 8 24</rect></_>
    <_>
      <rect>
        16 4 8 8 15</rect></_>
    <_>
      <rect>
        16 16 8 8 28</rect></_>
    <_>
      <rect>
        4 0 8 16 24</rect></_></features></cascade>
</opencv_storage>
